digraph Tree {
node [shape=box, style="filled, rounded", color="black", fontname=helvetica] ;
edge [fontname=helvetica] ;
0 [label="cp <= 0.83\ngini = 0.4\nsamples = 132\nvalue = [154, 58]", fillcolor="#efb084"] ;
1 [label="fbs <= 0.5\ngini = 0.24\nsamples = 69\nvalue = [96, 16]", fillcolor="#e9965a"] ;
0 -> 1 [labeldistance=2.5, labelangle=45, headlabel="True"] ;
2 [label="oldpeak <= 0.31\ngini = 0.15\nsamples = 57\nvalue = [80, 7]", fillcolor="#e78c4a"] ;
1 -> 2 ;
3 [label="ca <= 0.83\ngini = 0.09\nsamples = 54\nvalue = [79, 4]", fillcolor="#e68743"] ;
2 -> 3 ;
4 [label="chol <= 0.31\ngini = 0.05\nsamples = 53\nvalue = [79, 2]", fillcolor="#e6843e"] ;
3 -> 4 ;
5 [label="gini = 0.0\nsamples = 36\nvalue = [57, 0]", fillcolor="#e58139"] ;
4 -> 5 ;
6 [label="thalach <= 0.39\ngini = 0.15\nsamples = 17\nvalue = [22, 2]", fillcolor="#e78c4b"] ;
4 -> 6 ;
7 [label="gini = 0.0\nsamples = 2\nvalue = [0, 2]", fillcolor="#399de5"] ;
6 -> 7 ;
8 [label="gini = 0.0\nsamples = 15\nvalue = [22, 0]", fillcolor="#e58139"] ;
6 -> 8 ;
9 [label="gini = 0.0\nsamples = 1\nvalue = [0, 2]", fillcolor="#399de5"] ;
3 -> 9 ;
10 [label="exang <= 0.5\ngini = 0.38\nsamples = 3\nvalue = [1, 3]", fillcolor="#7bbeee"] ;
2 -> 10 ;
11 [label="trestbps <= 0.48\ngini = 0.5\nsamples = 2\nvalue = [1, 1]", fillcolor="#ffffff"] ;
10 -> 11 ;
12 [label="gini = 0.0\nsamples = 1\nvalue = [0, 1]", fillcolor="#399de5"] ;
11 -> 12 ;
13 [label="gini = 0.0\nsamples = 1\nvalue = [1, 0]", fillcolor="#e58139"] ;
11 -> 13 ;
14 [label="gini = 0.0\nsamples = 1\nvalue = [0, 2]", fillcolor="#399de5"] ;
10 -> 14 ;
15 [label="slope <= 0.25\ngini = 0.46\nsamples = 12\nvalue = [16, 9]", fillcolor="#f4c8a8"] ;
1 -> 15 ;
16 [label="gini = 0.0\nsamples = 5\nvalue = [10, 0]", fillcolor="#e58139"] ;
15 -> 16 ;
17 [label="oldpeak <= 0.23\ngini = 0.48\nsamples = 7\nvalue = [6, 9]", fillcolor="#bddef6"] ;
15 -> 17 ;
18 [label="gini = 0.0\nsamples = 4\nvalue = [5, 0]", fillcolor="#e58139"] ;
17 -> 18 ;
19 [label="ca <= 0.17\ngini = 0.18\nsamples = 3\nvalue = [1, 9]", fillcolor="#4fa8e8"] ;
17 -> 19 ;
20 [label="cp <= 0.33\ngini = 0.32\nsamples = 2\nvalue = [1, 4]", fillcolor="#6ab6ec"] ;
19 -> 20 ;
21 [label="gini = 0.0\nsamples = 1\nvalue = [1, 0]", fillcolor="#e58139"] ;
20 -> 21 ;
22 [label="gini = 0.0\nsamples = 1\nvalue = [0, 4]", fillcolor="#399de5"] ;
20 -> 22 ;
23 [label="gini = 0.0\nsamples = 1\nvalue = [0, 5]", fillcolor="#399de5"] ;
19 -> 23 ;
24 [label="chol <= 0.29\ngini = 0.49\nsamples = 63\nvalue = [58, 42]", fillcolor="#f8dcc8"] ;
0 -> 24 [labeldistance=2.5, labelangle=-45, headlabel="False"] ;
25 [label="chol <= 0.12\ngini = 0.41\nsamples = 37\nvalue = [45, 18]", fillcolor="#efb388"] ;
24 -> 25 ;
26 [label="trestbps <= 0.29\ngini = 0.42\nsamples = 8\nvalue = [3, 7]", fillcolor="#8ec7f0"] ;
25 -> 26 ;
27 [label="oldpeak <= 0.29\ngini = 0.5\nsamples = 5\nvalue = [3, 3]", fillcolor="#ffffff"] ;
26 -> 27 ;
28 [label="gini = 0.0\nsamples = 3\nvalue = [3, 0]", fillcolor="#e58139"] ;
27 -> 28 ;
29 [label="gini = 0.0\nsamples = 2\nvalue = [0, 3]", fillcolor="#399de5"] ;
27 -> 29 ;
30 [label="gini = 0.0\nsamples = 3\nvalue = [0, 4]", fillcolor="#399de5"] ;
26 -> 30 ;
31 [label="ca <= 0.17\ngini = 0.33\nsamples = 29\nvalue = [42, 11]", fillcolor="#eca26d"] ;
25 -> 31 ;
32 [label="thal <= 0.88\ngini = 0.05\nsamples = 19\nvalue = [35, 1]", fillcolor="#e6853f"] ;
31 -> 32 ;
33 [label="gini = 0.0\nsamples = 11\nvalue = [22, 0]", fillcolor="#e58139"] ;
32 -> 33 ;
34 [label="oldpeak <= 0.16\ngini = 0.13\nsamples = 8\nvalue = [13, 1]", fillcolor="#e78b48"] ;
32 -> 34 ;
35 [label="gini = 0.0\nsamples = 5\nvalue = [10, 0]", fillcolor="#e58139"] ;
34 -> 35 ;
36 [label="exang <= 0.5\ngini = 0.38\nsamples = 3\nvalue = [3, 1]", fillcolor="#eeab7b"] ;
34 -> 36 ;
37 [label="gini = 0.0\nsamples = 1\nvalue = [0, 1]", fillcolor="#399de5"] ;
36 -> 37 ;
38 [label="gini = 0.0\nsamples = 2\nvalue = [3, 0]", fillcolor="#e58139"] ;
36 -> 38 ;
39 [label="age <= 0.57\ngini = 0.48\nsamples = 10\nvalue = [7, 10]", fillcolor="#c4e2f7"] ;
31 -> 39 ;
40 [label="gini = 0.0\nsamples = 2\nvalue = [0, 5]", fillcolor="#399de5"] ;
39 -> 40 ;
41 [label="sex <= 0.5\ngini = 0.49\nsamples = 8\nvalue = [7, 5]", fillcolor="#f8dbc6"] ;
39 -> 41 ;
42 [label="gini = 0.0\nsamples = 2\nvalue = [0, 3]", fillcolor="#399de5"] ;
41 -> 42 ;
43 [label="trestbps <= 0.21\ngini = 0.35\nsamples = 6\nvalue = [7, 2]", fillcolor="#eca572"] ;
41 -> 43 ;
44 [label="gini = 0.0\nsamples = 1\nvalue = [0, 1]", fillcolor="#399de5"] ;
43 -> 44 ;
45 [label="exang <= 0.5\ngini = 0.22\nsamples = 5\nvalue = [7, 1]", fillcolor="#e99355"] ;
43 -> 45 ;
46 [label="thalach <= 0.36\ngini = 0.44\nsamples = 2\nvalue = [2, 1]", fillcolor="#f2c09c"] ;
45 -> 46 ;
47 [label="gini = 0.0\nsamples = 1\nvalue = [2, 0]", fillcolor="#e58139"] ;
46 -> 47 ;
48 [label="gini = 0.0\nsamples = 1\nvalue = [0, 1]", fillcolor="#399de5"] ;
46 -> 48 ;
49 [label="gini = 0.0\nsamples = 3\nvalue = [5, 0]", fillcolor="#e58139"] ;
45 -> 49 ;
50 [label="trestbps <= 0.35\ngini = 0.46\nsamples = 26\nvalue = [13, 24]", fillcolor="#a4d2f3"] ;
24 -> 50 ;
51 [label="slope <= 0.75\ngini = 0.5\nsamples = 16\nvalue = [12, 10]", fillcolor="#fbeade"] ;
50 -> 51 ;
52 [label="ca <= 0.5\ngini = 0.49\nsamples = 15\nvalue = [12, 9]", fillcolor="#f8e0ce"] ;
51 -> 52 ;
53 [label="trestbps <= 0.24\ngini = 0.39\nsamples = 9\nvalue = [11, 4]", fillcolor="#eeaf81"] ;
52 -> 53 ;
54 [label="chol <= 0.44\ngini = 0.22\nsamples = 4\nvalue = [7, 1]", fillcolor="#e99355"] ;
53 -> 54 ;
55 [label="gini = 0.0\nsamples = 3\nvalue = [7, 0]", fillcolor="#e58139"] ;
54 -> 55 ;
56 [label="gini = 0.0\nsamples = 1\nvalue = [0, 1]", fillcolor="#399de5"] ;
54 -> 56 ;
57 [label="age <= 0.52\ngini = 0.49\nsamples = 5\nvalue = [4, 3]", fillcolor="#f8e0ce"] ;
53 -> 57 ;
58 [label="gini = 0.0\nsamples = 2\nvalue = [0, 3]", fillcolor="#399de5"] ;
57 -> 58 ;
59 [label="gini = 0.0\nsamples = 3\nvalue = [4, 0]", fillcolor="#e58139"] ;
57 -> 59 ;
60 [label="oldpeak <= 0.34\ngini = 0.28\nsamples = 6\nvalue = [1, 5]", fillcolor="#61b1ea"] ;
52 -> 60 ;
61 [label="gini = 0.0\nsamples = 5\nvalue = [0, 5]", fillcolor="#399de5"] ;
60 -> 61 ;
62 [label="gini = 0.0\nsamples = 1\nvalue = [1, 0]", fillcolor="#e58139"] ;
60 -> 62 ;
63 [label="gini = 0.0\nsamples = 1\nvalue = [0, 1]", fillcolor="#399de5"] ;
51 -> 63 ;
64 [label="chol <= 0.39\ngini = 0.12\nsamples = 10\nvalue = [1, 14]", fillcolor="#47a4e7"] ;
50 -> 64 ;
65 [label="gini = 0.0\nsamples = 5\nvalue = [0, 8]", fillcolor="#399de5"] ;
64 -> 65 ;
66 [label="chol <= 0.41\ngini = 0.24\nsamples = 5\nvalue = [1, 6]", fillcolor="#5aade9"] ;
64 -> 66 ;
67 [label="gini = 0.0\nsamples = 1\nvalue = [1, 0]", fillcolor="#e58139"] ;
66 -> 67 ;
68 [label="gini = 0.0\nsamples = 4\nvalue = [0, 6]", fillcolor="#399de5"] ;
66 -> 68 ;
}